<?xml version="1.0" encoding="UTF-8"?>
<!-- This network was created in GeNIe Academic, which can be used for academic teaching and research purposes only -->
<smile version="1.0" id="changedData" numsamples="10000" discsamples="10000">
	<nodes>
		<cpt id="Cd">
			<state id="s1_below_0" />
			<state id="s2_0_0" />
			<state id="s3_0_up" />
			<probabilities>0.5863991081382386 0.379041248606466 0.03455964325529543</probabilities>
		</cpt>
		<cpt id="pb">
			<state id="s1_below_0" />
			<state id="s2_0_2" />
			<state id="s3_2_up" />
			<probabilities>0.5863991081382386 0.3355629877369007 0.07803790412486064</probabilities>
		</cpt>
		<cpt id="hg">
			<state id="s1_below_0" />
			<state id="s2_0_0" />
			<state id="s3_0_up" />
			<probabilities>0.7803790412486065 0.1415830546265329 0.07803790412486064</probabilities>
		</cpt>
		<cpt id="LVDiasDimen">
			<state id="s1_below_4" />
			<state id="s2_4_4" />
			<state id="s3_4_5" />
			<state id="s4_5_up" />
			<parents>Cd pb hg</parents>
			<probabilities>0.3778409090909091 0.4460227272727273 0.1732954545454546 0.002840909090909091 0.2763157894736842 0.4342105263157894 0.2763157894736842 0.0131578947368421 0.4375 0.4375 0.1041666666666667 0.02083333333333333 0.45625 0.50625 0.03125 0.00625 0.03571428571428571 0.6071428571428571 0.3214285714285714 0.03571428571428571 0.08333333333333333 0.4166666666666666 0.4166666666666666 0.08333333333333333 0.525 0.325 0.125 0.025 0.25 0.25 0.25 0.25 0.3125 0.5625 0.0625 0.0625 0.28125 0.50625 0.18125 0.03125 0.125 0.525 0.325 0.025 0.7083333333333333 0.2083333333333333 0.04166666666666666 0.04166666666666666 0.43125 0.48125 0.08125 0.00625 0.625 0.125 0.225 0.025 0.625 0.125 0.125 0.125 0.5681818181818182 0.3863636363636364 0.02272727272727273 0.02272727272727273 0.25 0.25 0.25 0.25 0.625 0.125 0.125 0.125 0.4642857142857142 0.4642857142857142 0.03571428571428571 0.03571428571428571 0.25 0.25 0.25 0.25 0.25 0.25 0.25 0.25 0.45 0.25 0.25 0.05 0.25 0.25 0.25 0.25 0.25 0.25 0.25 0.25 0.25 0.25 0.25 0.25 0.25 0.25 0.25 0.25 0.25 0.25 0.25 0.25</probabilities>
		</cpt>
		<cpt id="LVsSysDimen">
			<state id="s1_below_2" />
			<state id="s2_2_2" />
			<state id="s3_2_3" />
			<state id="s4_3_up" />
			<parents>Cd pb hg</parents>
			<probabilities>0.002840909090909091 0.4232954545454545 0.5596590909090909 0.01420454545454546 0.0131578947368421 0.4868421052631579 0.4868421052631579 0.0131578947368421 0.02083333333333333 0.6875 0.2708333333333333 0.02083333333333333 0.03125 0.6062500000000001 0.35625 0.00625 0.03571428571428571 0.4642857142857142 0.4642857142857142 0.03571428571428571 0.08333333333333333 0.4166666666666666 0.4166666666666666 0.08333333333333333 0.125 0.625 0.225 0.025 0.25 0.25 0.25 0.25 0.0625 0.3125 0.5625 0.0625 0.00625 0.50625 0.45625 0.03125 0.025 0.525 0.425 0.025 0.04166666666666666 0.7083333333333333 0.2083333333333333 0.04166666666666666 0.08125 0.43125 0.48125 0.00625 0.025 0.525 0.425 0.025 0.125 0.625 0.125 0.125 0.02272727272727273 0.8409090909090909 0.1136363636363636 0.02272727272727273 0.25 0.25 0.25 0.25 0.125 0.625 0.125 0.125 0.03571428571428571 0.4642857142857142 0.4642857142857142 0.03571428571428571 0.25 0.25 0.25 0.25 0.25 0.25 0.25 0.25 0.05 0.25 0.65 0.05 0.25 0.25 0.25 0.25 0.25 0.25 0.25 0.25 0.25 0.25 0.25 0.25 0.25 0.25 0.25 0.25 0.25 0.25 0.25 0.25</probabilities>
		</cpt>
		<cpt id="sciSBP">
			<state id="s1_below_99" />
			<state id="s2_99_119" />
			<state id="s3_119_138" />
			<state id="s4_138_up" />
			<parents>Cd pb hg</parents>
			<probabilities>0.03693181818181818 0.2414772727272727 0.6392045454545455 0.08238636363636363 0.06578947368421052 0.1184210526315789 0.6973684210526315 0.1184210526315789 0.1875 0.1875 0.6041666666666666 0.02083333333333333 0.03125 0.15625 0.70625 0.10625 0.03571428571428571 0.3214285714285714 0.4642857142857142 0.1785714285714285 0.4166666666666666 0.4166666666666666 0.08333333333333333 0.08333333333333333 0.025 0.025 0.7250000000000001 0.225 0.25 0.25 0.25 0.25 0.0625 0.0625 0.8125 0.0625 0.00625 0.20625 0.68125 0.10625 0.025 0.325 0.525 0.125 0.04166666666666666 0.375 0.5416666666666666 0.04166666666666666 0.00625 0.18125 0.68125 0.13125 0.125 0.225 0.625 0.025 0.125 0.625 0.125 0.125 0.02272727272727273 0.02272727272727273 0.8409090909090909 0.1136363636363636 0.25 0.25 0.25 0.25 0.125 0.125 0.625 0.125 0.1785714285714285 0.03571428571428571 0.75 0.03571428571428571 0.25 0.25 0.25 0.25 0.25 0.25 0.25 0.25 0.05 0.45 0.45 0.05 0.25 0.25 0.25 0.25 0.25 0.25 0.25 0.25 0.25 0.25 0.25 0.25 0.25 0.25 0.25 0.25 0.25 0.25 0.25 0.25</probabilities>
		</cpt>
		<cpt id="scidbp">
			<state id="s1_below_56" />
			<state id="s2_56_68" />
			<state id="s3_68_81" />
			<state id="s4_81_up" />
			<parents>Cd pb hg</parents>
			<probabilities>0.05965909090909091 0.6960227272727273 0.1846590909090909 0.05965909090909091 0.06578947368421052 0.4868421052631579 0.381578947368421 0.06578947368421052 0.1875 0.6041666666666666 0.1875 0.02083333333333333 0.03125 0.7312500000000001 0.15625 0.08125 0.1785714285714285 0.6071428571428571 0.1785714285714285 0.03571428571428571 0.4166666666666666 0.4166666666666666 0.08333333333333333 0.08333333333333333 0.025 0.625 0.125 0.225 0.25 0.25 0.25 0.25 0.0625 0.5625 0.3125 0.0625 0.03125 0.65625 0.20625 0.10625 0.025 0.7250000000000001 0.125 0.125 0.2083333333333333 0.7083333333333333 0.04166666666666666 0.04166666666666666 0.03125 0.55625 0.35625 0.05625 0.125 0.625 0.225 0.025 0.125 0.625 0.125 0.125 0.02272727272727273 0.5681818181818182 0.3863636363636364 0.02272727272727273 0.25 0.25 0.25 0.25 0.125 0.125 0.625 0.125 0.03571428571428571 0.6071428571428571 0.3214285714285714 0.03571428571428571 0.25 0.25 0.25 0.25 0.25 0.25 0.25 0.25 0.05 0.45 0.45 0.05 0.25 0.25 0.25 0.25 0.25 0.25 0.25 0.25 0.25 0.25 0.25 0.25 0.25 0.25 0.25 0.25 0.25 0.25 0.25 0.25</probabilities>
		</cpt>
	</nodes>
	<extensions>
		<genie version="1.0" app="GeNIe 3.0.6128.0 ACADEMIC" name="changedData">
			<node id="Cd">
				<name>Cd</name>
				<interior color="e5f6f7" />
				<outline color="000080" />
				<font color="000000" name="Arial" size="8" />
				<position>384 86 456 134</position>
				<barchart active="true" width="128" height="72" />
			</node>
			<node id="pb">
				<name>pb</name>
				<interior color="e5f6f7" />
				<outline color="000080" />
				<font color="000000" name="Arial" size="8" />
				<position>572 87 644 135</position>
				<barchart active="true" width="128" height="72" />
			</node>
			<node id="hg">
				<name>hg</name>
				<interior color="e5f6f7" />
				<outline color="000080" />
				<font color="000000" name="Arial" size="8" />
				<position>770 94 842 142</position>
				<barchart active="true" width="128" height="72" />
			</node>
			<node id="LVDiasDimen">
				<name>LVDiasDimen</name>
				<interior color="e5f6f7" />
				<outline color="000080" />
				<font color="000000" name="Arial" size="8" />
				<position>879 362 951 410</position>
				<barchart active="true" width="128" height="90" />
			</node>
			<node id="LVsSysDimen">
				<name>LVsSysDimen</name>
				<interior color="e5f6f7" />
				<outline color="000080" />
				<font color="000000" name="Arial" size="8" />
				<position>666 363 738 411</position>
				<barchart active="true" width="128" height="90" />
			</node>
			<node id="sciSBP">
				<name>sciSBP</name>
				<interior color="e5f6f7" />
				<outline color="000080" />
				<font color="000000" name="Arial" size="8" />
				<position>484 375 556 423</position>
				<barchart active="true" width="128" height="90" />
			</node>
			<node id="scidbp">
				<name>scidbp</name>
				<interior color="e5f6f7" />
				<outline color="000080" />
				<font color="000000" name="Arial" size="8" />
				<position>299 363 371 411</position>
				<barchart active="true" width="128" height="90" />
			</node>
			<textbox>
				<caption>Input file: changedData.csv\nData rows: 298\nElapsed time: 0.032s\n\nLearning algorithm: PC\nAlgorithm parameters:\nMax adjacency: 8\nSignificance: 0.05\nMax search time: 0\nNo background knowledge</caption>
				<font color="000000" name="Arial" size="8" />
				<position>10 254 141 394</position>
			</textbox>
		</genie>
	</extensions>
</smile>
